svm_type c_svc
kernel_type rbf
gamma 1
nr_class 3
total_sv 16
rho 0.027751052764584217 -0.30728489067284864 -0.31417664930209277
label 1 3 2
nr_sv 7 4 5
SV
0 0.32522337596943052 1:61 
0.83690981384482677 0.56050152759476057 1:56 
0.60299278917967725 0.37006493970758081 1:58 
0.83819184937946578 0.94709048514804606 1:61 
0.4864008687187511 0.062246005369834732 1:60 
0.60259979968959287 0.50413928690182408 1:59 
0.48717755110438404 0.34112864669444748 1:57 
-0.9718250076410907 0.68575093238992502 1:79 
-0.95489662526837227 0.67378221088285906 1:71 
-0.95506561927380462 0.67371334461422916 1:73 
-0.97248541973343017 0.68597107041888705 1:68 
-0.29446688539322835 -0.49648024131415136 1:63 
-0.20933385867718232 -0.11673346523409892 1:64 
-0.65660900304199132 -0.12568033455874436 1:62 
-0.99049334988946092 -0.9858103789428958 1:62 
-0.95949117038406129 -0.99451313825600995 1:64 
