svm_type c_svc
kernel_type rbf
gamma 1
nr_class 3
total_sv 18
rho -0.36314968479522669 -0.027513371029142135 0.37132584604865276
label 2 1 3
nr_sv 6 4 8
SV
0.55189706590904042 0.79826909870569407 1:63 
0.27814074172946296 0.44372315606887197 1:62 
0.5227801654320704 0.79847783256487248 1:59 
0.28926270947668747 0.44300514679625991 1:60 
0.40852535174479404 0.61718857041401265 1:61 
0.63665436963775301 0.97254454213786634 1:56 
-0.40801057488016101 0.33823998958104406 1:65 
-0.33940953060123291 0.82477578507769767 1:67 
-0.99906037673302006 1 1:67 
-0.94077992171539448 1 1:65 
-0.045836067712923007 -0 1:79 
-0.9817461260828616 -0.62854758098975594 1:79 
-0.028021678471532706 -0.30054322595983007 1:68 
-0.0088033462742558213 -0 1:71 
-1 -0.61688095780493579 1:71 
-0.99927408321101696 -1 1:68 
-0.016585500961800705 -0 1:73 
-0.99294154397318657 -0.61704400990421993 1:73 
